{
  "type": "NeuralNetwork",
  "sizes": [
    105,
    3,
    52
  ],
  "layers": [
    {
      "weights": [],
      "biases": []
    },
    {
      "weights": [
        [
          0.7797244787216187,
          -0.41353657841682434,
          -0.39821112155914307,
          0.9610311388969421,
          -0.4276166260242462,
          3.058673620223999,
          -0.03136296570301056,
          -6.225460052490234,
          0.28888455033302307,
          0.1358260065317154,
          12.347667694091797,
          -0.7150048017501831,
          -0.16792160272598267,
          0.012883096002042294,
          3.481266736984253,
          3.200547933578491,
          -3.8112714290618896,
          -11.290404319763184,
          -6.254734516143799,
          0.4269462525844574,
          -0.36259084939956665,
          -0.9191750288009644,
          0.14280793070793152,
          -0.328104168176651,
          -0.4739132821559906,
          -0.1535867601633072,
          -0.06489060819149017,
          -0.47057807445526123,
          -0.8069296479225159,
          -0.1395113319158554,
          -0.839627742767334,
          -0.336628258228302,
          0.26519423723220825,
          11.671625137329102,
          16.156675338745117,
          3.250214099884033,
          -5.190169811248779,
          -1.0498366355895996,
          -0.5583285689353943,
          -0.5672411322593689,
          -0.8850764036178589,
          2.146714448928833,
          -0.18497313559055328,
          -0.31088295578956604,
          0.019097203388810158,
          -0.1359584927558899,
          -0.6945873498916626,
          -0.2929003834724426,
          -0.5324515700340271,
          -1.281411051750183,
          -0.4268380105495453,
          0.04475044831633568,
          0.2057555764913559,
          -0.6578630805015564,
          -0.23291388154029846,
          -0.05635276436805725,
          -0.6550724506378174,
          0.11658725142478943,
          0.12648051977157593,
          -0.6673786640167236,
          -0.24825775623321533,
          -0.251755028963089,
          -0.5182070732116699,
          -1.8507729768753052,
          -6.496941089630127,
          -3.4942493438720703,
          -5.109616756439209,
          -0.5693486928939819,
          0.45625442266464233,
          -1.7910995483398438,
          1.1893128156661987,
          -1.472298502922058,
          -12.187744140625,
          -12.363069534301758,
          -2.776791572570801,
          -0.4604634940624237,
          -2.665329694747925,
          -0.9932249188423157,
          -6.837029933929443,
          0.4340876340866089,
          -0.916679322719574,
          15.353170394897461,
          10.0643949508667,
          -10.011788368225098,
          -1.9172539710998535,
          6.884368896484375,
          0.6529025435447693,
          2.8289554119110107,
          18.658367156982422,
          -6.827059268951416,
          -0.7608830332756042,
          22.019350051879883,
          20.818796157836914,
          -4.8145952224731445,
          -2.8080952167510986,
          -9.536605834960938,
          3.728235960006714,
          -3.2319958209991455,
          -5.12339973449707,
          -2.7241809368133545,
          -12.618172645568848,
          -1.8523186445236206,
          -0.33224621415138245,
          -0.4994852840900421,
          1.7859612703323364
        ],
        [
          -5.9555134773254395,
          0.12713222205638885,
          0.025108639150857925,
          -5.67816162109375,
          -0.16733810305595398,
          -1.3417387008666992,
          -0.07329826056957245,
          -0.014997408725321293,
          0.1348063200712204,
          0.08087441325187683,
          0.34831100702285767,
          0.5626903772354126,
          0.33291858434677124,
          0.5124354958534241,
          0.8900561928749084,
          0.43087565898895264,
          2.535151720046997,
          4.171449184417725,
          5.4137091636657715,
          -0.0656336322426796,
          -0.1908477395772934,
          0.054599829018116,
          0.001742833061143756,
          -0.12003622949123383,
          0.38390952348709106,
          -0.1505698561668396,
          0.06808537244796753,
          -0.11933118104934692,
          -0.0809173583984375,
          -0.17820139229297638,
          -0.24343696236610413,
          -0.04914778098464012,
          11.070664405822754,
          12.8683443069458,
          11.593823432922363,
          3.8599936962127686,
          4.917171478271484,
          0.26586440205574036,
          0.17144493758678436,
          -0.015963606536388397,
          -0.03346932679414749,
          -1.1389352083206177,
          0.19264397025108337,
          -0.1018386036157608,
          0.14819945394992828,
          0.28362059593200684,
          -0.09220373630523682,
          0.3464508354663849,
          0.10148341208696365,
          -0.32271525263786316,
          0.6179943084716797,
          0.057266365736722946,
          0.059866614639759064,
          -0.3114979863166809,
          0.3092523217201233,
          0.046044427901506424,
          -0.14205974340438843,
          -0.15472152829170227,
          -0.32176417112350464,
          0.07801199704408646,
          0.04512221738696098,
          0.3348577618598938,
          -0.1785172075033188,
          5.4288716316223145,
          4.779374599456787,
          5.701565742492676,
          4.943282127380371,
          4.077634334564209,
          9.3784761428833,
          7.020611763000488,
          12.294150352478027,
          1.290593147277832,
          2.7895777225494385,
          4.893463134765625,
          4.356714248657227,
          3.4300498962402344,
          2.9275200366973877,
          3.672119617462158,
          10.356179237365723,
          3.3512587547302246,
          6.028594017028809,
          12.363107681274414,
          4.410593509674072,
          4.336732387542725,
          4.39934778213501,
          5.084599018096924,
          5.904077529907227,
          10.957735061645508,
          12.0337553024292,
          5.011751174926758,
          5.267038345336914,
          12.928730964660645,
          12.893431663513184,
          4.8437886238098145,
          3.9470295906066895,
          5.237870693206787,
          5.6569294929504395,
          10.421929359436035,
          3.435431957244873,
          3.9579355716705322,
          3.4498395919799805,
          10.247267723083496,
          4.5154595375061035,
          3.571712017059326,
          7.033653259277344
        ],
        [
          -6.6828694343566895,
          0.4663850665092468,
          -1.0317286252975464,
          -6.59268045425415,
          -0.2906639873981476,
          -8.803091049194336,
          -0.06642908602952957,
          3.5326900482177734,
          -2.208083391189575,
          -0.991999626159668,
          -11.94141674041748,
          4.724473476409912,
          3.1730270385742188,
          0.7720434665679932,
          -7.6913371086120605,
          -4.816386699676514,
          7.846613883972168,
          2.9126195907592773,
          11.268316268920898,
          0.6149539351463318,
          -2.0514984130859375,
          -10.056758880615234,
          0.5969867706298828,
          -0.10437103360891342,
          1.611534833908081,
          -4.207464218139648,
          2.8539719581604004,
          -0.8771641254425049,
          -0.5872889161109924,
          -3.2857632637023926,
          3.1223185062408447,
          -3.875861644744873,
          1.8583930730819702,
          0.09135930985212326,
          1.1469192504882812,
          -1.7179971933364868,
          10.656106948852539,
          6.146430015563965,
          2.6769535541534424,
          0.1480054408311844,
          1.1563633680343628,
          33.605079650878906,
          0.4143069386482239,
          2.2635538578033447,
          0.9600439667701721,
          0.3584374189376831,
          8.140727996826172,
          1.5762234926223755,
          -0.04609059542417526,
          7.539551258087158,
          3.0732014179229736,
          2.395192861557007,
          1.4169021844863892,
          2.1723618507385254,
          2.188856601715088,
          -2.0389511585235596,
          -0.5185083746910095,
          -2.3075075149536133,
          -0.3774620294570923,
          -1.2549227476119995,
          0.9376696348190308,
          0.37866508960723877,
          0.45591843128204346,
          14.418143272399902,
          4.824538707733154,
          4.650017261505127,
          2.9822959899902344,
          2.6508290767669678,
          9.949178695678711,
          6.708681583404541,
          0.30176520347595215,
          5.053876876831055,
          21.316085815429688,
          23.08206558227539,
          0.645305871963501,
          1.4483004808425903,
          9.45118522644043,
          2.5383152961730957,
          13.198867797851562,
          1.0466492176055908,
          1.066323161125183,
          17.30754280090332,
          23.29228973388672,
          7.31024694442749,
          4.850952625274658,
          -2.850792407989502,
          1.8428125381469727,
          -0.3278251886367798,
          24.077184677124023,
          9.17268180847168,
          5.013963222503662,
          21.805679321289062,
          25.41746711730957,
          12.808762550354004,
          9.755941390991211,
          9.336688041687012,
          2.072937250137329,
          6.5009565353393555,
          15.7106351852417,
          4.384674072265625,
          4.85264253616333,
          6.586465835571289,
          -0.8952476382255554,
          -1.5327266454696655,
          2.4197146892547607
        ]
      ],
      "biases": [
        0.334154337644577,
        -1.6055513620376587,
        -1.7316094636917114
      ]
    },
    {
      "weights": [
        [
          -0.7510392665863037,
          -194.70513916015625,
          -0.6373264193534851
        ],
        [
          3.1979479789733887,
          -17.435300827026367,
          -1.2320209741592407
        ],
        [
          89.67444610595703,
          -6.025634765625,
          -2.2108964920043945
        ],
        [
          -107.10609436035156,
          -5.517392635345459,
          0.8778725862503052
        ],
        [
          -0.4378587007522583,
          -2.03763484954834,
          -0.18407626450061798
        ],
        [
          -1.6668949127197266,
          -2.1346445083618164,
          -0.5879401564598083
        ],
        [
          -1.53895103931427,
          -2.2284672260284424,
          -0.1377653181552887
        ],
        [
          -5.430198669433594,
          38.9223747253418,
          -3.975510835647583
        ],
        [
          -30.448328018188477,
          54.46083450317383,
          -87.06134796142578
        ],
        [
          -1.753536581993103,
          35.31422805786133,
          -3.521789789199829
        ],
        [
          -1.7880939245224,
          -3.4598631858825684,
          1.410095453262329
        ],
        [
          -1.1125774383544922,
          -1.8754392862319946,
          -0.3090561628341675
        ],
        [
          -1.711711049079895,
          -1.3733278512954712,
          0.7025681138038635
        ],
        [
          -0.9891242384910583,
          -0.91677325963974,
          0.17327606678009033
        ],
        [
          -0.833637535572052,
          -0.5705060958862305,
          0.6934073567390442
        ],
        [
          -1.0277410745620728,
          -0.3980454206466675,
          0.39347222447395325
        ],
        [
          -0.9825088977813721,
          -0.0812114030122757,
          0.11134368181228638
        ],
        [
          -1.2251290082931519,
          0.4287619888782501,
          0.21561795473098755
        ],
        [
          3.7712557315826416,
          -17.454906463623047,
          54.638980865478516
        ],
        [
          -1.8587790727615356,
          -3.3975062370300293,
          1.316450595855713
        ],
        [
          -1.8301705121994019,
          -3.54038405418396,
          13.031451225280762
        ],
        [
          -1.9673036336898804,
          -1.9838364124298096,
          -0.9628347754478455
        ],
        [
          -2.0462067127227783,
          -1.915383219718933,
          0.30244016647338867
        ],
        [
          -2.5944857597351074,
          -3.9222397804260254,
          16.038057327270508
        ],
        [
          -1.7659218311309814,
          -2.7435719966888428,
          0.22336021065711975
        ],
        [
          -1.2184230089187622,
          -0.963043749332428,
          -0.13026045262813568
        ],
        [
          -0.6323871612548828,
          -0.9603290557861328,
          0.3642025589942932
        ],
        [
          -0.8685455918312073,
          0.8622801899909973,
          -0.5783810019493103
        ],
        [
          -0.8639877438545227,
          20.481367111206055,
          -2.266953468322754
        ],
        [
          2.771345615386963,
          23.002384185791016,
          1.0615530014038086
        ],
        [
          -1.5762985944747925,
          -2.7781903743743896,
          0.031994741410017014
        ],
        [
          -1.1173902750015259,
          -1.3127894401550293,
          0.1725960671901703
        ],
        [
          -1.4824984073638916,
          -0.9688985347747803,
          0.9240832924842834
        ],
        [
          -0.9873502254486084,
          -0.41138437390327454,
          0.23180420696735382
        ],
        [
          -1.0251103639602661,
          -0.4596748948097229,
          0.6907508969306946
        ],
        [
          1.7041404247283936,
          15.582558631896973,
          0.640801191329956
        ],
        [
          -0.8163440823554993,
          -1.2446595430374146,
          0.10964559763669968
        ],
        [
          -1.0041733980178833,
          -0.8147776126861572,
          -0.5094518065452576
        ],
        [
          0.348757803440094,
          0.9362235069274902,
          -1.0001288652420044
        ],
        [
          0.9580582976341248,
          6.890941143035889,
          -0.07654730975627899
        ],
        [
          -1.4133950471878052,
          -1.192844033241272,
          -0.6277760863304138
        ],
        [
          -1.0071457624435425,
          -1.3933887481689453,
          -0.21004626154899597
        ],
        [
          -0.6733537912368774,
          0.10657841712236404,
          -0.0970807820558548
        ],
        [
          -1.7528369426727295,
          -0.7567785382270813,
          -0.06046335771679878
        ],
        [
          -0.9938094019889832,
          -0.5119696259498596,
          1.180927038192749
        ],
        [
          -1.3438140153884888,
          -0.6685170531272888,
          1.146043300628662
        ],
        [
          -1.8694734573364258,
          -2.3905556201934814,
          0.21373948454856873
        ],
        [
          -0.7689293622970581,
          -0.8070303797721863,
          -0.471981942653656
        ],
        [
          -2.070453405380249,
          -4.226381778717041,
          1.023795485496521
        ],
        [
          -1.4480103254318237,
          -1.7634061574935913,
          0.32698825001716614
        ],
        [
          -1.3988032341003418,
          -0.8996732234954834,
          0.6822380423545837
        ],
        [
          -1.1948521137237549,
          -1.3903944492340088,
          0.13298162817955017
        ]
      ],
      "biases": [
        2.922940969467163,
        -1.973193883895874,
        -87.5423355102539,
        0.03755509853363037,
        -2.447355031967163,
        -1.6621326208114624,
        -2.0530216693878174,
        -39.05313491821289,
        -48.29270553588867,
        -35.80854415893555,
        -2.8631949424743652,
        -2.2599382400512695,
        -3.2668094635009766,
        -3.152498245239258,
        -3.9633114337921143,
        -3.7899043560028076,
        -3.710463047027588,
        -4.213505268096924,
        -55.147544860839844,
        -2.6427807807922363,
        -14.047928810119629,
        -1.5680160522460938,
        -2.3517446517944336,
        -16.672548294067383,
        -2.0173721313476562,
        -2.8716318607330322,
        -3.5218732357025146,
        -3.969947338104248,
        -22.041690826416016,
        -29.752796173095703,
        -1.8380910158157349,
        -2.9652259349823,
        -3.7548367977142334,
        -3.6139583587646484,
        -3.973876476287842,
        -20.945667266845703,
        -2.9989142417907715,
        -2.7205252647399902,
        -4.315498352050781,
        -11.188295364379883,
        -2.399003744125366,
        -2.5870726108551025,
        -3.767005205154419,
        -2.932727098464966,
        -4.327216625213623,
        -4.220641613006592,
        -2.10821270942688,
        -2.877850294113159,
        -2.1101908683776855,
        -2.7153940200805664,
        -3.5401527881622314,
        -2.861177682876587
      ]
    }
  ],
  "inputLookup": {
    "init": 0,
    "onHands_102": 1,
    "onHands_43": 2,
    "onHands_31": 3,
    "onHands_54": 4,
    "onHands_32": 5,
    "onHands_81": 6,
    "onHands_51": 7,
    "onHands_154": 8,
    "onHands_83": 9,
    "onHands_34": 10,
    "onHands_113": 11,
    "onHands_124": 12,
    "onHands_53": 13,
    "played_31": 14,
    "played_32": 15,
    "played_34": 16,
    "played_51": 17,
    "played_53": 18,
    "onHands_153": 19,
    "onHands_62": 20,
    "onHands_142": 21,
    "onHands_112": 22,
    "onHands_91": 23,
    "onHands_103": 24,
    "onHands_143": 25,
    "onHands_123": 26,
    "onHands_72": 27,
    "onHands_64": 28,
    "onHands_104": 29,
    "onHands_71": 30,
    "onHands_141": 31,
    "played_141": 32,
    "played_142": 33,
    "played_143": 34,
    "played_62": 35,
    "played_64": 36,
    "onHands_41": 37,
    "onHands_101": 38,
    "onHands_92": 39,
    "onHands_73": 40,
    "onHands_33": 41,
    "onHands_111": 42,
    "onHands_132": 43,
    "onHands_134": 44,
    "onHands_94": 45,
    "onHands_52": 46,
    "onHands_133": 47,
    "onHands_63": 48,
    "onHands_44": 49,
    "onHands_122": 50,
    "onHands_121": 51,
    "onHands_131": 52,
    "onHands_42": 53,
    "onHands_152": 54,
    "onHands_144": 55,
    "onHands_84": 56,
    "onHands_151": 57,
    "onHands_74": 58,
    "onHands_82": 59,
    "onHands_93": 60,
    "onHands_114": 61,
    "onHands_61": 62,
    "played_71": 63,
    "played_72": 64,
    "played_92": 65,
    "played_94": 66,
    "played_121": 67,
    "played_122": 68,
    "played_132": 69,
    "played_133": 70,
    "played_33": 71,
    "played_41": 72,
    "played_52": 73,
    "played_63": 74,
    "played_73": 75,
    "played_44": 76,
    "played_61": 77,
    "played_102": 78,
    "played_112": 79,
    "played_134": 80,
    "played_144": 81,
    "played_154": 82,
    "played_43": 83,
    "played_91": 84,
    "played_101": 85,
    "played_114": 86,
    "played_124": 87,
    "played_153": 88,
    "played_103": 89,
    "played_104": 90,
    "played_151": 91,
    "played_152": 92,
    "played_82": 93,
    "played_84": 94,
    "played_131": 95,
    "played_93": 96,
    "played_113": 97,
    "played_54": 98,
    "played_83": 99,
    "played_42": 100,
    "played_74": 101,
    "played_123": 102,
    "played_111": 103,
    "played_81": 104
  },
  "inputLookupLength": 105,
  "outputLookup": {
    "31": 0,
    "32": 1,
    "33": 18,
    "34": 2,
    "41": 19,
    "42": 48,
    "43": 30,
    "44": 23,
    "51": 3,
    "52": 20,
    "53": 4,
    "54": 46,
    "61": 24,
    "62": 5,
    "63": 21,
    "64": 6,
    "71": 10,
    "72": 11,
    "73": 22,
    "74": 49,
    "81": 51,
    "82": 40,
    "83": 47,
    "84": 41,
    "91": 31,
    "92": 12,
    "93": 43,
    "94": 13,
    "101": 32,
    "102": 25,
    "103": 36,
    "104": 37,
    "111": 50,
    "112": 26,
    "113": 44,
    "114": 33,
    "121": 14,
    "122": 15,
    "123": 45,
    "124": 34,
    "131": 42,
    "132": 16,
    "133": 17,
    "134": 27,
    "141": 7,
    "142": 8,
    "143": 9,
    "144": 28,
    "151": 38,
    "152": 39,
    "153": 35,
    "154": 29
  },
  "outputLookupLength": 52,
  "options": {
    "inputSize": 0,
    "outputSize": 0,
    "binaryThresh": 0.5,
    "hiddenLayers": [
      3
    ],
    "activation": "sigmoid"
  },
  "trainOpts": {
    "activation": "sigmoid",
    "iterations": 10000,
    "errorThresh": 0.005,
    "log": true,
    "logPeriod": 1000,
    "leakyReluAlpha": 0.01,
    "learningRate": 0.3,
    "momentum": 0.1,
    "callbackPeriod": 10,
    "timeout": "Infinity",
    "beta1": 0.9,
    "beta2": 0.999,
    "epsilon": 1e-8
  }
}